<?xml version="1.0"?>
<opencv_storage>
<cascade>
  <stageType>BOOST</stageType>
  <featureType>HAAR</featureType>
  <height>15</height>
  <width>15</width>
  <stageParams>
    <boostType>RAB</boostType>
    <minHitRate>9.9500000476837158e-01</minHitRate>
    <maxFalseAlarm>6.9999998807907104e-01</maxFalseAlarm>
    <weightTrimRate>9.4999999999999996e-01</weightTrimRate>
    <maxDepth>1</maxDepth>
    <maxWeakCount>100</maxWeakCount></stageParams>
  <featureParams>
    <maxCatCount>0</maxCatCount>
    <featSize>1</featSize>
    <mode>ALL</mode></featureParams>
  <stageNum>8</stageNum>
  <stages>
    <!-- stage 0 -->
    <_>
      <maxWeakCount>5</maxWeakCount>
      <stageThreshold>-2.0872864723205566e+00</stageThreshold>
      <weakClassifiers>
        <_>
          <internalNodes>
            0 -1 3 -1.1571203470230103e+00</internalNodes>
          <leafValues>
            1.4615807533264160e+00 -1.1660460233688354e+00</leafValues></_>
        <_>
          <internalNodes>
            0 -1 1 -1.1359233409166336e-02</internalNodes>
          <leafValues>
            7.2299093008041382e-01 -7.0224040746688843e-01</leafValues></_>
        <_>
          <internalNodes>
            0 -1 45 3.8497280329465866e-03</internalNodes>
          <leafValues>
            -3.3495029807090759e-01 5.9158486127853394e-01</leafValues></_>
        <_>
          <internalNodes>
            0 -1 6 -6.8514617159962654e-03</internalNodes>
          <leafValues>
            3.6775305867195129e-01 -4.1912418603897095e-01</leafValues></_>
        <_>
          <internalNodes>
            0 -1 26 1.7686929553747177e-02</internalNodes>
          <leafValues>
            -2.5180274248123169e-01 6.3991928100585938e-01</leafValues></_></weakClassifiers></_>
    <!-- stage 1 -->
    <_>
      <maxWeakCount>6</maxWeakCount>
      <stageThreshold>-1.9661564826965332e+00</stageThreshold>
      <weakClassifiers>
        <_>
          <internalNodes>
            0 -1 3 -1.2316091060638428e+00</internalNodes>
          <leafValues>
            1.2599990367889404e+00 -1.1497356891632080e+00</leafValues></_>
        <_>
          <internalNodes>
            0 -1 1 -8.7896715849637985e-03</internalNodes>
          <leafValues>
            4.2315217852592468e-01 -6.9381499290466309e-01</leafValues></_>
        <_>
          <internalNodes>
            0 -1 51 4.7157891094684601e-03</internalNodes>
          <leafValues>
            -2.1254402399063110e-01 8.5054975748062134e-01</leafValues></_>
        <_>
          <internalNodes>
            0 -1 13 -1.6220143437385559e-01</internalNodes>
          <leafValues>
            6.1407577991485596e-01 -2.9534545540809631e-01</leafValues></_>
        <_>
          <internalNodes>
            0 -1 36 2.4525608867406845e-02</internalNodes>
          <leafValues>
            -2.6985001564025879e-01 6.6851288080215454e-01</leafValues></_>
        <_>
          <internalNodes>
            0 -1 38 2.3646499961614609e-02</internalNodes>
          <leafValues>
            -2.5428760051727295e-01 7.2191208600997925e-01</leafValues></_></weakClassifiers></_>
    <!-- stage 2 -->
    <_>
      <maxWeakCount>8</maxWeakCount>
      <stageThreshold>-1.7599260807037354e+00</stageThreshold>
      <weakClassifiers>
        <_>
          <internalNodes>
            0 -1 3 -1.2319262027740479e+00</internalNodes>
          <leafValues>
            1.4282350540161133e+00 -1.1502552032470703e+00</leafValues></_>
        <_>
          <internalNodes>
            0 -1 12 8.8884159922599792e-03</internalNodes>
          <leafValues>
            -3.3865502476692200e-01 5.3362059593200684e-01</leafValues></_>
        <_>
          <internalNodes>
            0 -1 43 1.4112380146980286e-01</internalNodes>
          <leafValues>
            -1.3779251277446747e-01 1.8106060028076172e+00</leafValues></_>
        <_>
          <internalNodes>
            0 -1 47 8.3610936999320984e-03</internalNodes>
          <leafValues>
            -4.5635801553726196e-01 5.1662808656692505e-01</leafValues></_>
        <_>
          <internalNodes>
            0 -1 25 1.6549112275242805e-02</internalNodes>
          <leafValues>
            -3.7085583806037903e-01 4.3157234787940979e-01</leafValues></_>
        <_>
          <internalNodes>
            0 -1 22 -1.5638101845979691e-02</internalNodes>
          <leafValues>
            5.9734058380126953e-01 -3.0654433369636536e-01</leafValues></_>
        <_>
          <internalNodes>
            0 -1 23 3.2744966447353363e-03</internalNodes>
          <leafValues>
            -2.4711535871028900e-01 5.1181906461715698e-01</leafValues></_>
        <_>
          <internalNodes>
            0 -1 27 9.7479280084371567e-03</internalNodes>
          <leafValues>
            -3.0684062838554382e-01 4.4522199034690857e-01</leafValues></_></weakClassifiers></_>
    <!-- stage 3 -->
    <_>
      <maxWeakCount>8</maxWeakCount>
      <stageThreshold>-1.8249249458312988e+00</stageThreshold>
      <weakClassifiers>
        <_>
          <internalNodes>
            0 -1 3 -1.2118105888366699e+00</internalNodes>
          <leafValues>
            9.5619374513626099e-01 -1.1507714986801147e+00</leafValues></_>
        <_>
          <internalNodes>
            0 -1 15 1.6639725863933563e-01</internalNodes>
          <leafValues>
            -1.3500702381134033e-01 1.9426226615905762e+00</leafValues></_>
        <_>
          <internalNodes>
            0 -1 11 4.3164420872926712e-02</internalNodes>
          <leafValues>
            -4.1293984651565552e-01 4.5140084624290466e-01</leafValues></_>
        <_>
          <internalNodes>
            0 -1 7 -5.4255641996860504e-02</internalNodes>
          <leafValues>
            4.2427578568458557e-01 -4.0479683876037598e-01</leafValues></_>
        <_>
          <internalNodes>
            0 -1 19 -5.7787704281508923e-03</internalNodes>
          <leafValues>
            -8.7279969453811646e-01 1.7040260136127472e-01</leafValues></_>
        <_>
          <internalNodes>
            0 -1 4 1.0448101907968521e-02</internalNodes>
          <leafValues>
            2.0345953106880188e-01 -9.0696150064468384e-01</leafValues></_>
        <_>
          <internalNodes>
            0 -1 34 3.1023394316434860e-02</internalNodes>
          <leafValues>
            -3.3233347535133362e-01 4.4190356135368347e-01</leafValues></_>
        <_>
          <internalNodes>
            0 -1 21 3.4997679293155670e-02</internalNodes>
          <leafValues>
            -2.5582712888717651e-01 7.0381450653076172e-01</leafValues></_></weakClassifiers></_>
    <!-- stage 4 -->
    <_>
      <maxWeakCount>7</maxWeakCount>
      <stageThreshold>-1.7762709856033325e+00</stageThreshold>
      <weakClassifiers>
        <_>
          <internalNodes>
            0 -1 3 -1.3379595279693604e+00</internalNodes>
          <leafValues>
            1.4722194671630859e+00 -1.1227998733520508e+00</leafValues></_>
        <_>
          <internalNodes>
            0 -1 52 6.1573907732963562e-03</internalNodes>
          <leafValues>
            1.7934603989124298e-01 -7.6834982633590698e-01</leafValues></_>
        <_>
          <internalNodes>
            0 -1 40 4.2510893195867538e-02</internalNodes>
          <leafValues>
            -1.2503647804260254e-01 1.2228174209594727e+00</leafValues></_>
        <_>
          <internalNodes>
            0 -1 10 -5.5640875361859798e-03</internalNodes>
          <leafValues>
            3.2334965467453003e-01 -4.0478277206420898e-01</leafValues></_>
        <_>
          <internalNodes>
            0 -1 33 -9.0999431908130646e-02</internalNodes>
          <leafValues>
            4.9850428104400635e-01 -2.3233731091022491e-01</leafValues></_>
        <_>
          <internalNodes>
            0 -1 50 6.3509014435112476e-03</internalNodes>
          <leafValues>
            -3.5645774006843567e-01 3.2783281803131104e-01</leafValues></_>
        <_>
          <internalNodes>
            0 -1 31 1.7229452729225159e-02</internalNodes>
          <leafValues>
            -1.7892998456954956e-01 6.9848448038101196e-01</leafValues></_></weakClassifiers></_>
    <!-- stage 5 -->
    <_>
      <maxWeakCount>9</maxWeakCount>
      <stageThreshold>-1.8500738143920898e+00</stageThreshold>
      <weakClassifiers>
        <_>
          <internalNodes>
            0 -1 3 -1.3303647041320801e+00</internalNodes>
          <leafValues>
            1.6225966215133667e+00 -1.1255162954330444e+00</leafValues></_>
        <_>
          <internalNodes>
            0 -1 15 2.0192125439643860e-01</internalNodes>
          <leafValues>
            -1.4359009265899658e-01 1.7786420583724976e+00</leafValues></_>
        <_>
          <internalNodes>
            0 -1 29 4.9667581915855408e-03</internalNodes>
          <leafValues>
            1.2899039685726166e-01 -1.2408714294433594e+00</leafValues></_>
        <_>
          <internalNodes>
            0 -1 0 -5.1800953224301338e-03</internalNodes>
          <leafValues>
            3.5884079337120056e-01 -3.5907775163650513e-01</leafValues></_>
        <_>
          <internalNodes>
            0 -1 9 -6.0237795114517212e-02</internalNodes>
          <leafValues>
            8.3889919519424438e-01 -1.9602723419666290e-01</leafValues></_>
        <_>
          <internalNodes>
            0 -1 17 2.9226712882518768e-02</internalNodes>
          <leafValues>
            -3.1617882847785950e-01 5.0822281837463379e-01</leafValues></_>
        <_>
          <internalNodes>
            0 -1 30 2.5387551635503769e-02</internalNodes>
          <leafValues>
            -2.4813008308410645e-01 5.8243989944458008e-01</leafValues></_>
        <_>
          <internalNodes>
            0 -1 24 -2.1730322390794754e-02</internalNodes>
          <leafValues>
            -9.6545588970184326e-01 1.3848929107189178e-01</leafValues></_>
        <_>
          <internalNodes>
            0 -1 18 -9.4853565096855164e-02</internalNodes>
          <leafValues>
            8.2760185003280640e-01 -1.6740827262401581e-01</leafValues></_></weakClassifiers></_>
    <!-- stage 6 -->
    <_>
      <maxWeakCount>7</maxWeakCount>
      <stageThreshold>-2.0548264980316162e+00</stageThreshold>
      <weakClassifiers>
        <_>
          <internalNodes>
            0 -1 44 -2.3901140689849854e-01</internalNodes>
          <leafValues>
            6.0198640823364258e-01 -1.1038755178451538e+00</leafValues></_>
        <_>
          <internalNodes>
            0 -1 39 -3.8598280400037766e-02</internalNodes>
          <leafValues>
            5.2381122112274170e-01 -2.4221497774124146e-01</leafValues></_>
        <_>
          <internalNodes>
            0 -1 48 1.3083197176456451e-02</internalNodes>
          <leafValues>
            1.7598818242549896e-01 -8.5286742448806763e-01</leafValues></_>
        <_>
          <internalNodes>
            0 -1 2 5.7817101478576660e-03</internalNodes>
          <leafValues>
            -2.8484022617340088e-01 4.3096870183944702e-01</leafValues></_>
        <_>
          <internalNodes>
            0 -1 14 -7.5309485197067261e-02</internalNodes>
          <leafValues>
            7.5499153137207031e-01 -2.0956097543239594e-01</leafValues></_>
        <_>
          <internalNodes>
            0 -1 46 -3.8204318843781948e-03</internalNodes>
          <leafValues>
            -1.0071918964385986e+00 1.7841973900794983e-01</leafValues></_>
        <_>
          <internalNodes>
            0 -1 37 2.2574666887521744e-02</internalNodes>
          <leafValues>
            -3.0591341853141785e-01 3.7915509939193726e-01</leafValues></_></weakClassifiers></_>
    <!-- stage 7 -->
    <_>
      <maxWeakCount>10</maxWeakCount>
      <stageThreshold>-2.0704050064086914e+00</stageThreshold>
      <weakClassifiers>
        <_>
          <internalNodes>
            0 -1 8 -7.8059840202331543e-01</internalNodes>
          <leafValues>
            1.0397207736968994e+00 -1.1117917299270630e+00</leafValues></_>
        <_>
          <internalNodes>
            0 -1 35 4.3960653245449066e-02</internalNodes>
          <leafValues>
            -3.2682490348815918e-01 4.9020463228225708e-01</leafValues></_>
        <_>
          <internalNodes>
            0 -1 41 7.3320381343364716e-03</internalNodes>
          <leafValues>
            -2.7519813179969788e-01 5.1340270042419434e-01</leafValues></_>
        <_>
          <internalNodes>
            0 -1 49 1.4588793739676476e-02</internalNodes>
          <leafValues>
            1.7157390713691711e-01 -7.5045645236968994e-01</leafValues></_>
        <_>
          <internalNodes>
            0 -1 32 1.3394554145634174e-02</internalNodes>
          <leafValues>
            -1.0835379362106323e-01 1.0672469139099121e+00</leafValues></_>
        <_>
          <internalNodes>
            0 -1 20 2.9336996376514435e-02</internalNodes>
          <leafValues>
            -2.3738469183444977e-01 6.2189686298370361e-01</leafValues></_>
        <_>
          <internalNodes>
            0 -1 16 1.2425119057297707e-02</internalNodes>
          <leafValues>
            -2.1539230644702911e-01 6.5776336193084717e-01</leafValues></_>
        <_>
          <internalNodes>
            0 -1 5 1.4987958595156670e-02</internalNodes>
          <leafValues>
            1.7678308486938477e-01 -6.7459726333618164e-01</leafValues></_>
        <_>
          <internalNodes>
            0 -1 28 6.3765337690711021e-03</internalNodes>
          <leafValues>
            -2.5324782729148865e-01 4.6583244204521179e-01</leafValues></_>
        <_>
          <internalNodes>
            0 -1 42 7.4206693097949028e-03</internalNodes>
          <leafValues>
            1.0943137109279633e-01 -1.6618500947952271e+00</leafValues></_></weakClassifiers></_></stages>
  <features>
    <_>
      <rects>
        <_>
          0 0 2 5 -1.</_>
        <_>
          1 0 1 5 2.</_></rects>
      <tilted>0</tilted></_>
    <_>
      <rects>
        <_>
          0 0 2 15 -1.</_>
        <_>
          1 0 1 15 2.</_></rects>
      <tilted>0</tilted></_>
    <_>
      <rects>
        <_>
          0 0 10 2 -1.</_>
        <_>
          0 0 5 1 2.</_>
        <_>
          5 1 5 1 2.</_></rects>
      <tilted>0</tilted></_>
    <_>
      <rects>
        <_>
          0 0 15 15 -1.</_>
        <_>
          5 5 5 5 9.</_></rects>
      <tilted>0</tilted></_>
    <_>
      <rects>
        <_>
          0 0 12 1 -1.</_>
        <_>
          6 0 6 1 2.</_></rects>
      <tilted>0</tilted></_>
    <_>
      <rects>
        <_>
          0 0 12 3 -1.</_>
        <_>
          6 0 6 3 2.</_></rects>
      <tilted>0</tilted></_>
    <_>
      <rects>
        <_>
          0 0 15 2 -1.</_>
        <_>
          0 1 15 1 2.</_></rects>
      <tilted>0</tilted></_>
    <_>
      <rects>
        <_>
          0 0 15 4 -1.</_>
        <_>
          0 2 15 2 2.</_></rects>
      <tilted>0</tilted></_>
    <_>
      <rects>
        <_>
          0 1 12 12 -1.</_>
        <_>
          4 5 4 4 9.</_></rects>
      <tilted>0</tilted></_>
    <_>
      <rects>
        <_>
          0 4 13 6 -1.</_>
        <_>
          0 6 13 2 3.</_></rects>
      <tilted>0</tilted></_>
    <_>
      <rects>
        <_>
          0 8 2 7 -1.</_>
        <_>
          1 8 1 7 2.</_></rects>
      <tilted>0</tilted></_>
    <_>
      <rects>
        <_>
          0 11 15 4 -1.</_>
        <_>
          0 13 15 2 2.</_></rects>
      <tilted>0</tilted></_>
    <_>
      <rects>
        <_>
          1 0 2 1 -1.</_>
        <_>
          1 0 1 1 2.</_></rects>
      <tilted>1</tilted></_>
    <_>
      <rects>
        <_>
          2 0 12 14 -1.</_>
        <_>
          5 0 6 14 2.</_></rects>
      <tilted>0</tilted></_>
    <_>
      <rects>
        <_>
          2 3 12 6 -1.</_>
        <_>
          2 5 12 2 3.</_></rects>
      <tilted>0</tilted></_>
    <_>
      <rects>
        <_>
          2 12 13 3 -1.</_>
        <_>
          2 13 13 1 3.</_></rects>
      <tilted>0</tilted></_>
    <_>
      <rects>
        <_>
          3 3 9 4 -1.</_>
        <_>
          3 4 9 2 2.</_></rects>
      <tilted>0</tilted></_>
    <_>
      <rects>
        <_>
          3 4 8 6 -1.</_>
        <_>
          3 6 8 2 3.</_></rects>
      <tilted>0</tilted></_>
    <_>
      <rects>
        <_>
          3 6 8 8 -1.</_>
        <_>
          7 6 4 8 2.</_></rects>
      <tilted>0</tilted></_>
    <_>
      <rects>
        <_>
          4 0 1 3 -1.</_>
        <_>
          3 1 1 1 3.</_></rects>
      <tilted>1</tilted></_>
    <_>
      <rects>
        <_>
          4 3 6 10 -1.</_>
        <_>
          6 3 2 10 3.</_></rects>
      <tilted>0</tilted></_>
    <_>
      <rects>
        <_>
          4 3 9 7 -1.</_>
        <_>
          7 3 3 7 3.</_></rects>
      <tilted>0</tilted></_>
    <_>
      <rects>
        <_>
          4 6 7 4 -1.</_>
        <_>
          4 8 7 2 2.</_></rects>
      <tilted>0</tilted></_>
    <_>
      <rects>
        <_>
          4 7 4 3 -1.</_>
        <_>
          4 8 4 1 3.</_></rects>
      <tilted>0</tilted></_>
    <_>
      <rects>
        <_>
          4 13 10 1 -1.</_>
        <_>
          9 13 5 1 2.</_></rects>
      <tilted>0</tilted></_>
    <_>
      <rects>
        <_>
          5 0 4 5 -1.</_>
        <_>
          5 0 2 5 2.</_></rects>
      <tilted>1</tilted></_>
    <_>
      <rects>
        <_>
          5 6 6 3 -1.</_>
        <_>
          4 7 6 1 3.</_></rects>
      <tilted>1</tilted></_>
    <_>
      <rects>
        <_>
          5 7 5 4 -1.</_>
        <_>
          5 9 5 2 2.</_></rects>
      <tilted>0</tilted></_>
    <_>
      <rects>
        <_>
          6 4 9 1 -1.</_>
        <_>
          9 4 3 1 3.</_></rects>
      <tilted>0</tilted></_>
    <_>
      <rects>
        <_>
          7 0 2 2 -1.</_>
        <_>
          7 1 2 1 2.</_></rects>
      <tilted>0</tilted></_>
    <_>
      <rects>
        <_>
          7 0 4 4 -1.</_>
        <_>
          7 0 2 4 2.</_></rects>
      <tilted>1</tilted></_>
    <_>
      <rects>
        <_>
          7 4 4 8 -1.</_>
        <_>
          8 4 2 8 2.</_></rects>
      <tilted>0</tilted></_>
    <_>
      <rects>
        <_>
          7 5 2 6 -1.</_>
        <_>
          8 5 1 6 2.</_></rects>
      <tilted>0</tilted></_>
    <_>
      <rects>
        <_>
          8 0 7 8 -1.</_>
        <_>
          6 2 7 4 2.</_></rects>
      <tilted>1</tilted></_>
    <_>
      <rects>
        <_>
          8 2 6 10 -1.</_>
        <_>
          11 2 3 10 2.</_></rects>
      <tilted>0</tilted></_>
    <_>
      <rects>
        <_>
          8 4 6 9 -1.</_>
        <_>
          11 4 3 9 2.</_></rects>
      <tilted>0</tilted></_>
    <_>
      <rects>
        <_>
          10 2 3 10 -1.</_>
        <_>
          11 3 1 10 3.</_></rects>
      <tilted>1</tilted></_>
    <_>
      <rects>
        <_>
          10 4 4 11 -1.</_>
        <_>
          12 4 2 11 2.</_></rects>
      <tilted>0</tilted></_>
    <_>
      <rects>
        <_>
          11 4 3 8 -1.</_>
        <_>
          12 5 1 8 3.</_></rects>
      <tilted>1</tilted></_>
    <_>
      <rects>
        <_>
          11 6 4 4 -1.</_>
        <_>
          11 6 2 4 2.</_></rects>
      <tilted>1</tilted></_>
    <_>
      <rects>
        <_>
          11 11 4 4 -1.</_>
        <_>
          12 11 2 4 2.</_></rects>
      <tilted>0</tilted></_>
    <_>
      <rects>
        <_>
          11 13 4 2 -1.</_>
        <_>
          11 13 2 1 2.</_>
        <_>
          13 14 2 1 2.</_></rects>
      <tilted>0</tilted></_>
    <_>
      <rects>
        <_>
          12 0 3 1 -1.</_>
        <_>
          13 1 1 1 3.</_></rects>
      <tilted>1</tilted></_>
    <_>
      <rects>
        <_>
          12 0 3 14 -1.</_>
        <_>
          13 0 1 14 3.</_></rects>
      <tilted>0</tilted></_>
    <_>
      <rects>
        <_>
          12 0 2 12 -1.</_>
        <_>
          8 4 2 4 3.</_></rects>
      <tilted>1</tilted></_>
    <_>
      <rects>
        <_>
          12 6 3 5 -1.</_>
        <_>
          13 6 1 5 3.</_></rects>
      <tilted>0</tilted></_>
    <_>
      <rects>
        <_>
          13 0 2 1 -1.</_>
        <_>
          13 0 1 1 2.</_></rects>
      <tilted>1</tilted></_>
    <_>
      <rects>
        <_>
          13 0 2 15 -1.</_>
        <_>
          14 0 1 15 2.</_></rects>
      <tilted>0</tilted></_>
    <_>
      <rects>
        <_>
          13 1 2 8 -1.</_>
        <_>
          13 5 2 4 2.</_></rects>
      <tilted>0</tilted></_>
    <_>
      <rects>
        <_>
          13 2 2 12 -1.</_>
        <_>
          13 5 2 6 2.</_></rects>
      <tilted>0</tilted></_>
    <_>
      <rects>
        <_>
          13 5 2 10 -1.</_>
        <_>
          14 5 1 10 2.</_></rects>
      <tilted>0</tilted></_>
    <_>
      <rects>
        <_>
          13 13 2 2 -1.</_>
        <_>
          13 13 1 1 2.</_>
        <_>
          14 14 1 1 2.</_></rects>
      <tilted>0</tilted></_>
    <_>
      <rects>
        <_>
          14 0 1 12 -1.</_>
        <_>
          14 3 1 6 2.</_></rects>
      <tilted>0</tilted></_></features></cascade>
</opencv_storage>
